<?xml version="1.0"?>
<opencv_storage>
<stage6>
  <maxWeakCount>15</maxWeakCount>
  <stageThreshold>-1.2317037582397461e+00</stageThreshold>
  <weakClassifiers>
    <_>
      <internalNodes>
        0 -1 29084 -9.2839822173118591e-02</internalNodes>
      <leafValues>
        4.4075828790664673e-01 -5.1893097162246704e-01</leafValues></_>
    <_>
      <internalNodes>
        0 -1 1755443 4.8997916281223297e-02</internalNodes>
      <leafValues>
        -3.3326837420463562e-01 4.1949516534805298e-01</leafValues></_>
    <_>
      <internalNodes>
        0 -1 644908 -2.3793238401412964e-01</internalNodes>
      <leafValues>
        2.9011049866676331e-01 -4.6584555506706238e-01</leafValues></_>
    <_>
      <internalNodes>
        0 -1 84855 2.3207299411296844e-02</internalNodes>
      <leafValues>
        -4.9810498952865601e-01 2.3959106206893921e-01</leafValues></_>
    <_>
      <internalNodes>
        0 -1 1443433 1.1067921150242910e-04</internalNodes>
      <leafValues>
        7.7168338000774384e-02 -7.9339855909347534e-01</leafValues></_>
    <_>
      <internalNodes>
        0 -1 1181741 -3.9062246680259705e-02</internalNodes>
      <leafValues>
        -1.1939895898103714e-01 7.2054207324981689e-01</leafValues></_>
    <_>
      <internalNodes>
        0 -1 74545 -2.0188211929053068e-03</internalNodes>
      <leafValues>
        1.3929633796215057e-01 -7.3359608650207520e-01</leafValues></_>
    <_>
      <internalNodes>
        0 -1 341305 -1.8091764301061630e-02</internalNodes>
      <leafValues>
        -7.9312163591384888e-01 1.3481999933719635e-01</leafValues></_>
    <_>
      <internalNodes>
        0 -1 1602669 -9.5381066785193980e-05</internalNodes>
      <leafValues>
        4.9906927347183228e-01 -2.1460837125778198e-01</leafValues></_>
    <_>
      <internalNodes>
        0 -1 1041786 -1.9269539043307304e-03</internalNodes>
      <leafValues>
        1.1758787184953690e-01 -7.6485270261764526e-01</leafValues></_>
    <_>
      <internalNodes>
        0 -1 1602669 6.8169494625180960e-05</internalNodes>
      <leafValues>
        -1.9914211332798004e-01 4.1456371545791626e-01</leafValues></_>
    <_>
      <internalNodes>
        0 -1 89865 -1.8003478646278381e-02</internalNodes>
      <leafValues>
        -7.9111772775650024e-01 8.9403763413429260e-02</leafValues></_>
    <_>
      <internalNodes>
        0 -1 1985751 -3.8079293444752693e-03</internalNodes>
      <leafValues>
        -4.9024599790573120e-01 1.5143217146396637e-01</leafValues></_>
    <_>
      <internalNodes>
        0 -1 1620980 -4.3151332647539675e-04</internalNodes>
      <leafValues>
        1.8587373197078705e-01 -4.0290084481239319e-01</leafValues></_>
    <_>
      <internalNodes>
        0 -1 1677228 -2.4528175126761198e-03</internalNodes>
      <leafValues>
        2.4612437188625336e-01 -3.4011328220367432e-01</leafValues></_></weakClassifiers></stage6>
</opencv_storage>
