<?xml version="1.0"?>
<opencv_storage>
<stage2>
  <maxWeakCount>7</maxWeakCount>
  <stageThreshold>-1.7604831457138062e+00</stageThreshold>
  <weakClassifiers>
    <_>
      <internalNodes>
        0 -1 1688220 7.5171947479248047e-02</internalNodes>
      <leafValues>
        -6.5841585397720337e-01 4.9218750000000000e-01</leafValues></_>
    <_>
      <internalNodes>
        0 -1 1324169 -1.8539953231811523e-01</internalNodes>
      <leafValues>
        -1. 3.0103233456611633e-01</leafValues></_>
    <_>
      <internalNodes>
        0 -1 913487 2.2447891533374786e-02</internalNodes>
      <leafValues>
        -7.4248945713043213e-01 4.1833722591400146e-01</leafValues></_>
    <_>
      <internalNodes>
        0 -1 49026 -6.5830558538436890e-02</internalNodes>
      <leafValues>
        5.7514202594757080e-01 -4.0002930164337158e-01</leafValues></_>
    <_>
      <internalNodes>
        0 -1 730381 -8.7650805711746216e-02</internalNodes>
      <leafValues>
        3.0598521232604980e-01 -6.4717519283294678e-01</leafValues></_>
    <_>
      <internalNodes>
        0 -1 387557 -9.6729248762130737e-02</internalNodes>
      <leafValues>
        -9.5585840940475464e-01 2.4951067566871643e-01</leafValues></_>
    <_>
      <internalNodes>
        0 -1 1986389 -6.2804138287901878e-03</internalNodes>
      <leafValues>
        1.3708360493183136e-01 -8.9209663867950439e-01</leafValues></_></weakClassifiers></stage2>
</opencv_storage>
